let daora2 = { "hp": 1, "newscore": 374145348, "score": 0, "maxScore": 0, "xpos": 268.69288543705085, "ypos": 365.3596035647034, "size": 20, "dx": 9.782694264623023, "dy": 4.885785456656517, "decay": 0.97, "grav": 0, "energy": 48, "orbs": [], "lado": 1, "nn": { "inputLayer": [{ "weights": [-0.7705125265703336, 0.15238539294279674, 0.3456711016067988, 0.35603033550764174, -0.9223787667935452, 0.5958200833417426, -0.5059316410410766, -0.7172887780392312, 0.37298844679011056], "bias": -0.30334381732331206 }, { "weights": [-0.9523915413651363, -0.8191178991351329, -0.3323529160581744, 0.6538665553447149, -0.6490430676934467, 0.4423590602169667, -0.4862712100004565, 0.6050675423732863, 0.5647268646762051], "bias": 0.6371453357934849 }, { "weights": [-0.31203743745274704, 0.5358227843285359, 0.8937515144809938, -0.7606260297394463, -0.39454994192697024, 0.8132359162178973, -0.364574140983871, 0.7308047843813785, -0.12129023183713405], "bias": 0.9535751284412863 }, { "weights": [-0.7676217736322386, -0.6202729830529892, 0.9806441402249131, 0.9184069500529385, 0.17843153446698945, 0.3066974011800285, 0.9686606395066557, 0.2944672327582408, 0.7088668010203296], "bias": -0.17333803952881865 }, { "weights": [0.37816716265351547, -0.7761682172742743, 0.7295600929098227, -0.8234273476220944, 0.32359088626615806, 0.4657916793030399, 0.31375988296335766, 0.3467493601592979, 0.9529651208386496], "bias": -0.6800756130018066 }, { "weights": [-0.6710903371269654, -0.15719591282368084, 0.5783120505723076, -0.8897098700649422, 0.22222960709991568, -0.20967504045884278, -0.3898417001722092, 0.030372945184727218, 0.47939074522592584], "bias": -0.39915669536964754 }, { "weights": [-0.4804312041727594, 0.6018629200824708, 0.3627820394105511, 0.45954577010702513, -0.012283453305068522, 0.35153752634106683, 0.6434306256699232, -0.22084568733350185, 1.0666991362530989], "bias": 0.7559793342976638 }, { "weights": [-0.23304411725506524, -0.8527639396607465, 0.40041637740995073, -0.9405574445878759, 0.9064501269746725, 0.8652079025143777, -0.978533147225344, 0.5871270584037536, 0.4385897938856571], "bias": 1.070399333904336 }, { "weights": [0.9019787485742108, -0.9285470978351875, -0.3741906310137151, 0.0751648571865724, -0.9818091040696926, -0.47749085067277797, -0.6777732118071671, 0.9971029964719365, 0.039129808367428076], "bias": 0.19443993939377924 }], "hiddenLayer": [{ "weights": [0.7508558853855307, 0.6180693337041334, -0.6051165462144201, 0.14847939149002576, -0.77013462779182, -0.2500162907646253, 0.13988439443350753, 0.009229553187334982, -0.8435972021779654], "bias": -0.22258841695605236 }, { "weights": [0.016596419963328616, -0.43962395238318797, 0.4907991940920901, 0.4579461575617579, -0.1044700010568522, 0.01492174301711182, -0.07304816731405511, -0.3532049927538888, 0.003349135996135316], "bias": 0.3958850533243897 }, { "weights": [-0.861084441653746, 0.8712313014279829, -0.3745285455162284, 0.49400237450256856, -0.26554928426948887, 0.4604835775101703, 0.04410513528899651, -0.9748842175021961, -0.7794913365249583], "bias": -0.36352526133521046 }, { "weights": [-0.5798347296082675, -0.10191598002574676, 0.6636053100305093, -0.7775298852445021, 0.16679412920224124, 0.9841061840438443, 0.5392349583771905, -0.5471672911771543, 0.6465130391560003], "bias": 0.8660989052066959 }, { "weights": [0.6406891832948229, 0.8226215143541848, -0.3171747282243875, -0.3422467783243168, 0.14296402037665956, 0.65254058387056, 0.3978119920263996, 0.6321365667273722, 0.22034132683012508], "bias": -0.7137349595976041 }, { "weights": [-0.8209308892921086, 0.05727858570728374, 0.023706399503869706, 0.48360113914944136, 0.13414247512915528, 1.1104742788851234, -0.2326380022026387, 0.7068066728293811, 0.19620928529875395], "bias": -0.19720224922411944 }, { "weights": [-0.4216712294222229, 0.6180408698729405, 0.0482916801801907, -0.010156085124351844, 0.8791046221324046, -0.9309831517910969, 0.5454374312414156, 0.2020924373727473, 0.6039059108312279], "bias": 0.31371022290350803 }, { "weights": [0.5081076037177659, -0.03340114423135132, 0.7147733841461048, -0.6904167601916189, -0.1680245059568608, -0.2958760289973519, 0.7612070891777885, -0.8709343724511935, -0.40759059767131633], "bias": -0.42989026083585813 }, { "weights": [-0.7534059269587856, 0.8353450301665504, 0.8405624730942799, 0.603026785546847, 0.4402469895891329, 0.06780139477656069, 1.128270034850675, -0.7251326827394411, 0.16197840219211884], "bias": -0.8065452207590265 }], "outputLayer": [{ "weights": [-0.10897597231343857, -0.5892807513533527, -1.0108038385756355, -0.21481024622518208, -0.9144082813115453, -0.8186218016275544, 0.32948154719245093, 0.14670336402410022, -0.012029706224637157], "bias": -0.5261050865450274 }, { "weights": [0.7154342191757876, 0.07297313402124928, 0.8594125799128918, 0.7940418697219864, -0.6085227236508381, 0.26201111027989143, 0.14811540213148888, -0.8701364382821694, 0.014924525158146967], "bias": -0.013435628408363431 }, { "weights": [0.26456019158508076, 0.5407148197581247, -0.019708749755148705, -0.25585319703316745, 0.5599303582616392, -0.3458241043058089, -0.881998216214513, 1.1503024139215094, -0.17262820310522745], "bias": 1.2437637897464273 }, { "weights": [-0.6225292248930279, -0.13844281217488508, 1.0763887222482849, 0.5876795633437475, -0.9313697474228241, 0.568022612482594, 0.9665604661218095, -0.07613079551658503, -0.6530625432260597], "bias": 0.7370117876640642 }] }, "color": "rgb( 186.04032701408022,56.24195735217335,40.58320287326392)", "output": [-1.6044230645105535, -0.8745395754578728, -1.0112912283893112, -1.2313130849952032] }