"{"hp":1,"newscore":64442684,"score":0,"maxScore":0,"xpos":321.6391330464626,"ypos":129.92945311849354,"size":20,"dx":8.145181454047414,"dy":2.1671303159183504,"decay":0.97,"grav":0,"energy":9,"orbs":[],"lado":1,"nn":{"inputLayer":[{"weights":[0.15680863325632055,-0.17261984277903597,0.04924075782817372,-0.9469954554071376,0.9955362133743857,-0.26303371969092737,0.6891309091369924,-0.7248109235071087,0.4000510816124794],"bias":-0.4911460407620596},{"weights":[-0.22967007229035863,-0.30441637748187045,0.8902184885340683,0.8239365941634933,0.22353062652702116,0.2415747895043805,0.4883324594547873,0.04092065193591621,0.6369018497317218],"bias":0.2770831281962365},{"weights":[0.49144915813436274,0.7810163864793571,0.12274734071111837,-0.8146101360389988,-0.6902485796568558,-0.6061048207673698,-0.3389201604192147,-0.6221442133544892,0.8037011839694053],"bias":-0.6202072344566869},{"weights":[0.3314955843746299,0.21616905460938618,0.42643290505824094,0.1651431352535342,-0.2300654678640779,0.38516422748364487,-0.8904114382452617,-0.7319371179946907,-0.2781036749578192],"bias":-0.3928175839080823},{"weights":[0.5685910930930924,-0.3843062681808309,-0.45419126930606746,-0.12485682798547604,0.3305584216199655,-0.39002295456989033,-0.7540518047265219,-0.35728466360147504,-0.9066195659860159],"bias":-0.3908317966081043},{"weights":[-0.159621803969058,0.7336273327052516,-0.25385998149496736,0.8618461070794852,0.010824286637963976,0.7028957612618205,-0.9816733243134244,-0.17381387496421485,0.42829915126549123],"bias":0.251300492748161},{"weights":[0.023454418756660544,-0.47761105608273624,-0.5013984407914593,-0.05574142574077534,-0.16581899485359397,0.6040055861104068,0.9041270236266059,0.42007144156837795,0.9539199277666981],"bias":-0.460497861170015},{"weights":[-0.8607855332021837,-0.5836435415449146,0.4756611318522004,0.1631987147377738,-0.09038557735106734,0.9525137348781199,0.17621778270092925,-0.18251582213843642,0.06019585206711531],"bias":0.948866922099982},{"weights":[-0.6647799138476969,0.479228312001434,0.2726191158042002,-0.3743286970868822,-0.7992001931512114,-0.18072780656656562,0.9432247048323208,0.5458757181771223,0.9397316966065725],"bias":0.25800907658411987}],"hiddenLayer":[{"weights":[-0.6861394229836844,0.756126184342055,-0.3279844228125972,0.14477633543266633,0.0008822901502325564,0.43198543099207853,-0.22661938413468175,0.004306410334135702,-0.5764010172192422],"bias":-0.42245530694938915},{"weights":[-0.8011763502897642,-0.4174454614991525,0.7057273154329406,0.4084401470086574,-0.2582892200003317,-0.60826552766056,0.2090065984002374,0.5173992114275912,0.6913188220464015],"bias":0.7660096705360453},{"weights":[-0.4119741015563836,0.7671606169976184,-0.34111052113786,-0.6471696689861166,-0.9364233411115288,-0.8174615277434607,-0.2200762395682494,-0.31129805147241374,-0.2825840911679811],"bias":0.02481660724074919},{"weights":[0.36998135751115546,0.9536738311001356,0.17077774966544368,-0.006188398197940259,-0.34878811733588355,0.8181314320202033,0.6129211767523648,0.8101675477452943,0.9066426379069616],"bias":-0.1971108026839956},{"weights":[-0.8134540335056162,-0.8585503931916136,-0.014375330628951577,-0.9521485856630747,0.1080300566313297,0.16117476161173538,-0.5281688848541686,0.024586460712822333,-0.08870342717312196],"bias":0.08581054317778802},{"weights":[0.6270518392778581,0.8823583835493749,-0.13654775346868409,0.5187251901224572,-0.5282269518006744,-0.32926543843242273,-0.7031647972589554,0.03141292180439992,0.24556845213334144],"bias":-0.5218096450032825},{"weights":[-0.867380349666512,0.49550664863515337,-0.8184311169345371,-0.10829625354675176,0.967341986781272,0.5856346470569451,0.44982168707428594,-0.524936881982609,-0.8859707333945974],"bias":0.6092278975464753},{"weights":[0.20728338487285924,0.4345436903599489,-0.5239235417373456,-0.7842233341528289,0.8289774012502824,0.5115902924826519,0.4157769949506944,0.8400468723042529,-0.4805619582870566],"bias":-0.5162693428653689},{"weights":[0.7270140714876554,-0.16177722050719012,0.40643755199488973,-0.9328363571618019,0.6876748765096337,-0.40863740349264965,0.9948443038667971,-0.6973844647628176,0.8237670283356011],"bias":-0.5649769023365563}],"outputLayer":[{"weights":[0.41251968917859916,0.7302159153768417,-0.8459687677492256,-0.8158852755845696,-0.6513915316102841,0.7909703694768799,-0.36786212554005715,0.5049076245716231,-0.9278449056114089],"bias":-0.29222023922420526},{"weights":[0.37879124036117684,0.2664203975262871,-0.004698704971063616,-0.4519198884845843,-0.0010393304102516154,-0.3217680717190383,0.6072404304367445,0.8890626767307044,-0.5362961225061338],"bias":-0.150008044795225},{"weights":[0.1662793923883097,0.34833347446479423,0.3667802359633261,-0.8166673478244456,0.3491018187132422,0.6343491318753811,-0.04482627943018622,-0.8718403331448837,-0.16603707291197078],"bias":-0.23172495463503884},{"weights":[0.027211437395792792,0.4011732111414936,0.22351316968323465,-0.8006320451064477,-0.5712091094819614,-0.4229068906195903,0.3590827812748203,-0.708489361071011,-0.823862881565391],"bias":-0.11284688096506802}]},"color":"rgb( 232.91666333857623,191.135764811614,131.74807475871512)","output":[-1.7156586252471002,-2.382820634869633,-7.622698023638742,-5.813413833719714]}"